svm_type c_svc
kernel_type rbf
gamma 0.058823529411764705
nr_class 7
total_sv 34
rho -0.5605832040687846 -0.8940964418902398 -0.1217914615885267 -0.45482920795736553 -0.24457995402802646 -0.912626235002015 0.02276137032017633 0.33523679896774056 0.018055543303489685 0.0 -0.9428731203079224 0.376594495721939 -0.004681216951114742 -0.016516911262842333 -0.711112767457962 -0.5838556885719299 -0.29530714824795723 -0.8221004414207188 -0.019144618593639768 -0.3281206339597702 -0.059395939111709595
label 1 4 2 7 5 6 3
nr_sv 10 3 7 5 3 5 1
SV
0.0 0.0 0.6206471024309339 0.0 0.0 0.0 3:0.0 5:0.0 8:1.0 13:4.0 14:1.0 17:1.0 
0.0 0.0 0.0 0.7037675164944507 0.35674714212702785 0.0 3:0.0 5:0.0 8:1.0 13:4.0 14:0.0 17:1.0 
0.8128179884089201 1.0 0.0 0.0 0.0 0.0 3:0.0 5:0.0 8:1.0 13:0.0 14:1.0 17:1.0 
0.5731789761056191 0.4849255420112463 1.0 1.0 1.0 0.11824740571041444 3:1.0 5:0.0 8:0.0 13:6.0 14:0.0 17:6.0 
0.0 1.0 0.7685562286327483 0.0 0.0 0.0 3:0.0 5:1.0 8:1.0 13:2.0 14:1.0 17:1.0 
0.0 0.9725323936590701 0.04713717037105407 0.0 0.0 0.0 3:0.0 5:0.0 8:1.0 13:2.0 14:0.0 17:1.0 
0.0 1.0 1.0 0.0 0.0 0.0 3:0.0 5:0.0 8:1.0 13:2.0 14:0.0 17:1.0 
0.2940211137667268 1.0 0.0 0.6070019423653726 0.4958285206344911 0.07958294146279934 3:1.0 5:0.0 8:0.0 13:4.0 14:1.0 17:1.0 
0.9982738950441205 0.4072948240342956 0.0 0.4316844028487538 0.4798659999307492 0.8021696528267862 3:0.0 5:0.0 8:1.0 13:0.0 14:1.0 17:1.0 
0.0 0.4158739962944605 0.0 0.0 0.0 0.0 3:0.0 5:0.0 8:1.0 13:4.0 14:1.0 17:1.0 
-0.7016943977252611 0.4528613253330342 0.0 0.0 0.0 0.0 3:1.0 5:0.0 8:1.0 13:0.0 14:1.0 17:4.0 
-1.0 1.0 0.9647709270003578 0.5908949913757855 0.08660915404450513 0.0 3:1.0 5:0.0 8:1.0 13:0.0 14:1.0 17:4.0 
-0.9765975756001253 0.9947681297576807 1.0 1.0 1.0 1.0 3:1.0 5:0.0 8:1.0 13:0.0 14:1.0 17:4.0 
-0.48962653670940637 -0.0 0.0 0.0 0.0 0.0 3:1.0 5:1.0 8:0.0 13:2.0 14:1.0 17:2.0 
-1.0 -0.0 0.0 0.0 0.0 0.0 3:1.0 5:0.0 8:0.0 13:2.0 14:1.0 17:2.0 
-1.0 -0.0 0.0 0.0 0.0 0.0 3:1.0 5:1.0 8:0.0 13:2.0 14:1.0 17:2.0 
-1.0 -1.0 0.0 0.27733061846021045 0.0 0.0 3:1.0 5:0.0 8:0.0 13:2.0 14:1.0 17:2.0 
-1.0 -0.0 0.0 0.0 0.0 0.0 3:1.0 5:1.0 8:0.0 13:2.0 14:1.0 17:2.0 
-1.0 -0.9487378351194284 0.9167231936204828 1.0 0.5023765487504658 0.8513094331354403 3:1.0 5:0.0 8:0.0 13:2.0 14:1.0 17:2.0 
-0.791000219289666 -0.4988916199712865 0.7088861435229274 0.5132722415509597 0.6795630730346541 0.14869056686455973 3:1.0 5:1.0 8:0.0 13:2.0 14:1.0 17:2.0 
-1.0 -1.0 -0.7167944840083842 0.7286524458106014 0.5358820802740091 0.45976519509418395 3:1.0 5:0.0 8:0.0 13:0.0 14:0.0 17:7.0 
-0.7669395079182378 -0.4915296620656676 -0.4275814586929777 1.0 1.0 0.0 3:1.0 5:0.0 8:0.0 13:4.0 14:0.0 17:7.0 
-0.11019524989730943 -0.0 -0.0 0.27134755418939865 1.0 0.540234804905816 3:1.0 5:0.0 8:0.0 13:6.0 14:0.0 17:7.0 
-0.5592057436191892 -0.0 -0.0 1.0 1.0 0.0 3:1.0 5:0.0 8:0.0 13:6.0 14:0.0 17:7.0 
-1.0 -0.4732412649346901 -0.48123339444204816 0.0 1.0 0.0 3:1.0 5:0.0 8:0.0 13:8.0 14:0.0 17:7.0 
-0.7882088162978247 -0.0 -0.0 -1.0 1.0 0.0 3:1.0 5:0.0 8:1.0 13:4.0 14:0.0 17:5.0 
-0.9542450454107524 -0.5908949913757855 -0.7906028600111702 -1.0 1.0 0.3458173784209593 3:1.0 5:0.0 8:1.0 13:4.0 14:0.0 17:5.0 
-1.0 -1.0 -1.0 -1.0 0.9159906726372102 0.6541826215790407 3:1.0 5:0.0 8:1.0 13:4.0 14:1.0 17:5.0 
-0.0 -0.0 -0.0 -0.5358820802740091 -0.0 0.0 3:1.0 5:1.0 8:0.0 13:6.0 14:0.0 17:6.0 
-0.0 -0.0 -0.0 -1.0 -0.0 0.0 3:1.0 5:1.0 8:0.0 13:6.0 14:0.0 17:6.0 
-0.3663889089840597 -0.0 -0.0 -1.0 -0.9913519197039404 0.0 3:1.0 5:1.0 8:0.0 13:6.0 14:0.0 17:6.0 
-1.0 -0.08660915404450513 -0.1942933151752452 -1.0 -1.0 0.0 3:1.0 5:1.0 8:0.0 13:6.0 14:0.0 17:6.0 
-0.9660527537082084 -1.0 -0.9876463066098747 -1.0 -0.9246387529332698 1.0 3:1.0 5:1.0 8:0.0 13:6.0 14:0.0 17:6.0 
-1.0 -1.0 -1.0 -1.0 -1.0 -1.0 3:1.0 5:0.0 8:1.0 13:0.0 14:1.0 17:3.0 
