svm_type c_svc
kernel_type rbf
gamma 0.1111111111111111
nr_class 11
total_sv 528
rho -0.2671862542629242 -0.6551485657691956 -0.4982655644416809 -0.1060646474361422 -0.0017644166946411133 0.503968894481659 0.4389261305332184 0.6799292266368865 0.4297662377357483 0.24113488197326657 -0.5648136734962463 -0.34199875593185425 0.032274305820465185 0.28880977630615234 0.6700575202703474 0.3748741149902344 0.9392780661582947 0.42614513635635376 0.4856843650341034 0.10978886485099792 0.3523222506046295 0.7007685005664825 0.9688358455896379 0.773720920085907 1.385775238275528 0.8187182247638702 1.0227846205234528 0.17351174354553223 0.9157278537750245 1.2582397460937504 0.7817949950695038 1.4841133654117584 1.038253977894783 1.1079874634742737 0.9745574593544006 1.398100197315216 0.9908632040023804 1.2755922675132751 1.1001828014850614 0.46910834312438965 0.6618139296770096 0.31320104002952587 0.43991079926490784 0.36625275015830994 -0.1672544777393341 -0.30225764214992523 -0.39691855013370503 -0.19560424983501434 -0.7221715334238187 -0.14666911959648124 0.143344908952713 -0.6919648945331573 0.10440714657306663 -0.5733526647090912 -0.46967776119709015
label 0 1 2 3 4 5 6 7 8 9 10
nr_sv 48 48 48 48 48 48 48 48 48 48 48
SV
1.0 1.0 1.0 1.0 1.0 1.0 1.0 1.0 1.0 1.0 9:-0.874 
1.0 1.0 1.0 1.0 1.0 1.0 1.0 1.0 1.0 1.0 9:-0.797 
1.0 1.0 1.0 1.0 1.0 1.0 1.0 1.0 1.0 1.0 9:-0.676 
1.0 1.0 1.0 1.0 1.0 1.0 1.0 1.0 1.0 1.0 9:-0.577 
1.0 1.0 1.0 1.0 1.0 1.0 1.0 1.0 1.0 1.0 9:-0.492 
1.0 1.0 1.0 1.0 1.0 1.0 1.0 1.0 1.0 1.0 9:-0.524 
1.0 1.0 1.0 1.0 1.0 1.0 1.0 1.0 1.0 1.0 9:-0.784 
1.0 1.0 1.0 1.0 1.0 1.0 1.0 1.0 1.0 1.0 9:-0.827 
1.0 1.0 1.0 1.0 1.0 1.0 1.0 1.0 1.0 1.0 9:-0.891 
1.0 1.0 1.0 1.0 1.0 1.0 0.0 1.0 1.0 1.0 9:-1.195 
1.0 1.0 1.0 0.9216900536137334 1.0 0.0 0.0 1.0 1.0 1.0 9:-1.342 
1.0 1.0 0.0 0.0 0.0 0.0 0.0 0.0 0.0 0.0 9:-1.52 
1.0 1.0 1.0 0.0 0.5650592891460882 0.0 0.0 0.5250047983445159 0.0 1.0 9:-1.385 
1.0 0.12436223766479747 0.0 0.0 0.0 0.0 0.0 0.0 0.0 0.0 9:-1.569 
1.0 1.0 0.0 0.0 0.0 0.0 0.0 0.0 0.0 0.0 9:-1.521 
1.0 1.0 0.0 0.0 0.0 0.0 0.0 0.0 0.0 0.0 9:-1.486 
1.0 1.0 0.1001103022644956 0.0 0.0 0.0 0.0 0.0 0.0 0.39329865100108846 9:-1.436 
1.0 1.0 1.0 0.0 1.0 0.0 0.0 1.0 0.22961257872017538 1.0 9:-1.36 
1.0 1.0 1.0 1.0 1.0 1.0 1.0 1.0 1.0 1.0 9:0.129 
1.0 1.0 1.0 1.0 1.0 1.0 1.0 1.0 1.0 1.0 9:0.121 
1.0 1.0 1.0 1.0 1.0 1.0 1.0 1.0 1.0 1.0 9:-0.012 
1.0 1.0 1.0 1.0 1.0 1.0 1.0 1.0 1.0 1.0 9:-0.115 
1.0 1.0 1.0 1.0 1.0 1.0 1.0 1.0 1.0 1.0 9:-0.163 
1.0 1.0 1.0 1.0 1.0 1.0 1.0 1.0 1.0 1.0 9:-0.192 
1.0 1.0 1.0 1.0 1.0 1.0 1.0 1.0 1.0 1.0 9:-0.74 
1.0 1.0 1.0 1.0 1.0 1.0 1.0 1.0 1.0 1.0 9:-0.52 
1.0 1.0 1.0 1.0 1.0 1.0 1.0 1.0 1.0 1.0 9:-0.295 
1.0 1.0 1.0 1.0 1.0 1.0 1.0 1.0 1.0 1.0 9:-0.318 
1.0 1.0 1.0 1.0 1.0 1.0 1.0 1.0 1.0 1.0 9:-0.355 
1.0 1.0 1.0 1.0 1.0 1.0 1.0 1.0 1.0 1.0 9:-0.346 
1.0 1.0 1.0 1.0 1.0 1.0 1.0 1.0 1.0 1.0 9:-1.004 
1.0 1.0 1.0 1.0 1.0 1.0 0.2584820360304926 1.0 1.0 1.0 9:-1.033 
1.0 1.0 1.0 1.0 1.0 0.9377083319886709 0.0 1.0 1.0 1.0 9:-1.268 
1.0 1.0 1.0 0.0 0.0 0.0 0.0 0.0 0.0 1.0 9:-1.433 
1.0 1.0 1.0 1.0 1.0 0.0 0.0 1.0 1.0 1.0 9:-1.272 
1.0 1.0 1.0 1.0 1.0 1.0 0.0 1.0 1.0 1.0 9:-1.172 
1.0 1.0 1.0 1.0 1.0 1.0 1.0 1.0 1.0 1.0 9:-0.248 
1.0 1.0 1.0 1.0 1.0 1.0 1.0 1.0 1.0 1.0 9:-0.364 
1.0 1.0 1.0 1.0 1.0 1.0 1.0 1.0 1.0 1.0 9:-0.471 
1.0 1.0 1.0 1.0 1.0 1.0 1.0 1.0 1.0 1.0 9:-0.501 
1.0 1.0 1.0 1.0 1.0 1.0 1.0 1.0 1.0 1.0 9:-0.316 
1.0 1.0 1.0 1.0 1.0 1.0 1.0 1.0 1.0 1.0 9:-0.307 
1.0 1.0 1.0 1.0 1.0 1.0 1.0 1.0 1.0 1.0 9:-0.063 
1.0 1.0 1.0 1.0 1.0 1.0 1.0 1.0 1.0 1.0 9:0.06 
1.0 1.0 1.0 1.0 1.0 1.0 1.0 1.0 1.0 1.0 9:0.178 
1.0 1.0 1.0 1.0 1.0 1.0 1.0 1.0 1.0 1.0 9:0.295 
1.0 1.0 1.0 1.0 1.0 1.0 1.0 1.0 1.0 1.0 9:0.461 
1.0 1.0 1.0 1.0 1.0 1.0 1.0 1.0 1.0 1.0 9:0.551 
-1.0 1.0 1.0 1.0 1.0 1.0 1.0 1.0 1.0 1.0 9:-0.621 
-1.0 1.0 1.0 1.0 1.0 1.0 0.9007483027826497 1.0 1.0 1.0 9:-0.774 
-1.0 1.0 1.0 1.0 1.0 1.0 1.0 1.0 1.0 1.0 9:-0.492 
-1.0 1.0 1.0 1.0 1.0 1.0 1.0 1.0 1.0 1.0 9:-0.358 
-1.0 1.0 1.0 1.0 1.0 1.0 1.0 1.0 1.0 1.0 9:-0.394 
-1.0 1.0 1.0 1.0 1.0 1.0 1.0 1.0 1.0 1.0 9:-0.551 
-1.0 1.0 1.0 1.0 1.0 1.0 1.0 1.0 1.0 1.0 9:0.558 
-1.0 1.0 1.0 1.0 1.0 1.0 1.0 1.0 1.0 1.0 9:0.298 
-1.0 1.0 1.0 1.0 1.0 1.0 1.0 1.0 1.0 1.0 9:0.154 
-1.0 1.0 1.0 1.0 1.0 1.0 1.0 1.0 1.0 1.0 9:0.044 
-1.0 1.0 1.0 1.0 1.0 1.0 1.0 1.0 1.0 1.0 9:-0.029 
-1.0 1.0 1.0 1.0 1.0 1.0 1.0 1.0 1.0 1.0 9:-0.005 
-1.0 1.0 1.0 1.0 1.0 1.0 1.0 1.0 1.0 1.0 9:-0.669 
-1.0 1.0 1.0 1.0 1.0 1.0 1.0 1.0 1.0 1.0 9:-0.687 
-1.0 1.0 1.0 1.0 1.0 1.0 1.0 1.0 1.0 1.0 9:-0.632 
-1.0 1.0 1.0 1.0 1.0 1.0 1.0 1.0 1.0 1.0 9:-0.63 
-1.0 1.0 1.0 1.0 1.0 1.0 1.0 1.0 1.0 1.0 9:-0.568 
-1.0 1.0 1.0 1.0 1.0 1.0 1.0 1.0 1.0 1.0 9:-0.515 
-1.0 1.0 1.0 1.0 1.0 1.0 1.0 1.0 1.0 1.0 9:0.188 
-1.0 1.0 1.0 1.0 1.0 1.0 1.0 1.0 1.0 1.0 9:0.272 
-1.0 1.0 1.0 1.0 1.0 1.0 1.0 1.0 1.0 1.0 9:0.292 
-1.0 1.0 1.0 1.0 1.0 1.0 1.0 1.0 1.0 1.0 9:0.303 
-1.0 1.0 1.0 1.0 1.0 1.0 1.0 1.0 1.0 1.0 9:0.313 
-1.0 1.0 1.0 1.0 1.0 1.0 1.0 1.0 1.0 1.0 9:0.293 
-1.0 1.0 1.0 1.0 1.0 1.0 1.0 1.0 1.0 1.0 9:-0.637 
-1.0 1.0 1.0 1.0 1.0 1.0 1.0 1.0 1.0 1.0 9:-0.489 
-1.0 1.0 1.0 1.0 1.0 1.0 1.0 1.0 1.0 1.0 9:-0.473 
-1.0 1.0 1.0 1.0 1.0 1.0 1.0 1.0 1.0 1.0 9:-0.568 
-1.0 1.0 1.0 1.0 1.0 1.0 1.0 1.0 1.0 1.0 9:-0.687 
-1.0 1.0 1.0 1.0 1.0 1.0 1.0 1.0 1.0 1.0 9:-0.65 
-1.0 1.0 1.0 1.0 1.0 0.0 0.0 1.0 0.0 1.0 9:-1.128 
-1.0 1.0 1.0 0.09749079846626281 0.8074072479010275 0.0 0.0 0.8878829210260604 0.0 1.0 9:-1.279 
-1.0 1.0 0.0 0.0 0.0 0.0 0.0 0.0 0.0 0.0 9:-1.501 
-1.0 1.0 1.0 0.0 0.0 0.0 0.0 0.0 0.0 1.0 9:-1.483 
-1.0 1.0 0.0 0.0 0.0 0.0 0.0 0.0 0.0 0.0 9:-1.507 
-1.0 1.0 1.0 0.0 0.0 0.0 0.0 0.0 0.0 0.9989123619314982 9:-1.494 
-1.0 1.0 1.0 1.0 1.0 1.0 0.0 1.0 1.0 1.0 9:-0.893 
-1.0 1.0 1.0 1.0 1.0 0.0 0.0 1.0 1.0 1.0 9:-0.927 
-1.0 1.0 1.0 1.0 1.0 1.0 0.0 1.0 1.0 1.0 9:-0.855 
-1.0 1.0 1.0 1.0 1.0 1.0 0.0 1.0 1.0 1.0 9:-0.821 
-1.0 1.0 1.0 1.0 1.0 0.5357917385364657 0.0 1.0 1.0 1.0 9:-0.904 
-1.0 1.0 1.0 1.0 1.0 0.0 0.0 1.0 1.0 1.0 9:-0.973 
-1.0 1.0 1.0 1.0 1.0 1.0 1.0 1.0 1.0 1.0 9:-0.648 
-1.0 1.0 1.0 1.0 1.0 1.0 1.0 1.0 1.0 1.0 9:-0.277 
-1.0 1.0 1.0 1.0 1.0 1.0 1.0 1.0 1.0 1.0 9:-0.449 
-1.0 1.0 1.0 1.0 1.0 1.0 1.0 1.0 1.0 1.0 9:-0.671 
-1.0 1.0 1.0 1.0 1.0 1.0 1.0 1.0 1.0 1.0 9:-0.696 
-1.0 1.0 1.0 1.0 1.0 1.0 1.0 1.0 1.0 1.0 9:-0.546 
-1.0 -1.0 1.0 1.0 1.0 1.0 0.0 1.0 1.0 1.0 9:-0.809 
-1.0 -1.0 1.0 1.0 1.0 0.0 0.0 1.0 0.0 1.0 9:-0.903 
-1.0 -1.0 1.0 1.0 1.0 0.1384918531206678 0.0 1.0 1.0 1.0 9:-0.855 
-1.0 -1.0 1.0 1.0 1.0 0.0 0.0 1.0 1.0 1.0 9:-0.866 
-1.0 -1.0 1.0 1.0 1.0 0.0 0.0 1.0 1.0 1.0 9:-0.885 
-1.0 -1.0 1.0 1.0 1.0 0.0 0.0 1.0 1.0 1.0 9:-0.887 
-1.0 -1.0 1.0 1.0 1.0 1.0 1.0 1.0 1.0 1.0 9:-0.24 
-1.0 -1.0 1.0 1.0 1.0 1.0 1.0 1.0 1.0 1.0 9:-0.229 
-1.0 -1.0 1.0 1.0 1.0 1.0 1.0 1.0 1.0 1.0 9:-0.323 
-1.0 -1.0 1.0 1.0 1.0 1.0 1.0 1.0 1.0 1.0 9:-0.279 
-1.0 -1.0 1.0 1.0 1.0 1.0 1.0 1.0 1.0 1.0 9:-0.275 
-1.0 -1.0 1.0 1.0 1.0 1.0 1.0 1.0 1.0 1.0 9:-0.124 
-1.0 -1.0 1.0 1.0 1.0 1.0 0.829367848508711 1.0 1.0 1.0 9:-0.691 
-1.0 -1.0 1.0 1.0 1.0 1.0 1.0 1.0 1.0 1.0 9:-0.613 
-1.0 -1.0 1.0 1.0 1.0 1.0 1.0 1.0 1.0 1.0 9:-0.541 
-1.0 -1.0 1.0 1.0 1.0 1.0 1.0 1.0 1.0 1.0 9:-0.422 
-1.0 -1.0 1.0 1.0 1.0 1.0 1.0 1.0 1.0 1.0 9:-0.374 
-1.0 -1.0 1.0 1.0 1.0 1.0 1.0 1.0 1.0 1.0 9:-0.409 
-1.0 -1.0 1.0 1.0 1.0 1.0 1.0 1.0 1.0 1.0 9:-0.376 
-1.0 -1.0 1.0 1.0 1.0 1.0 1.0 1.0 1.0 1.0 9:-0.184 
-1.0 -1.0 1.0 1.0 1.0 1.0 1.0 1.0 1.0 1.0 9:-0.301 
-1.0 -1.0 1.0 1.0 1.0 1.0 1.0 1.0 1.0 1.0 9:-0.403 
-1.0 -1.0 1.0 1.0 1.0 1.0 1.0 1.0 1.0 1.0 9:-0.462 
-1.0 -1.0 1.0 1.0 1.0 1.0 1.0 1.0 1.0 1.0 9:-0.446 
-1.0 -1.0 1.0 1.0 1.0 1.0 1.0 1.0 1.0 1.0 9:-0.285 
-1.0 -1.0 1.0 1.0 1.0 1.0 1.0 1.0 1.0 1.0 9:-0.246 
-1.0 -1.0 1.0 1.0 1.0 1.0 1.0 1.0 1.0 1.0 9:-0.277 
-1.0 -1.0 1.0 1.0 1.0 1.0 1.0 1.0 1.0 1.0 9:-0.186 
-0.12436223766479747 -1.0 1.0 1.0 1.0 1.0 1.0 1.0 1.0 1.0 9:0.068 
-1.0 -1.0 1.0 1.0 1.0 1.0 1.0 1.0 1.0 1.0 9:-0.132 
-1.0 -1.0 1.0 1.0 1.0 1.0 0.0 1.0 1.0 1.0 9:-0.721 
-1.0 -1.0 1.0 1.0 1.0 0.0 0.0 1.0 0.0 1.0 9:-0.936 
-1.0 -1.0 1.0 0.12955230887994684 0.1981874557948504 0.0 0.0 0.0 0.0 1.0 9:-1.072 
-1.0 -1.0 1.0 0.0 0.0 0.0 0.0 0.0 0.0 1.0 9:-1.087 
-1.0 -1.0 1.0 0.0 0.0 0.0 0.0 0.0 0.0 1.0 9:-1.295 
-1.0 -1.0 0.19028681482122523 0.0 0.0 1.0 0.0 0.38872181121023375 0.0 0.09630561661009625 9:-1.456 
-1.0 -1.0 1.0 1.0 1.0 1.0 1.0 1.0 1.0 1.0 9:-0.326 
-1.0 -1.0 1.0 1.0 1.0 1.0 1.0 1.0 1.0 1.0 9:-0.404 
-1.0 -1.0 1.0 1.0 1.0 1.0 1.0 1.0 1.0 1.0 9:-0.266 
-1.0 -1.0 1.0 1.0 1.0 1.0 1.0 1.0 1.0 1.0 9:-0.062 
-1.0 -1.0 1.0 1.0 1.0 1.0 1.0 1.0 1.0 1.0 9:-0.028 
-1.0 -1.0 1.0 1.0 1.0 1.0 1.0 1.0 1.0 1.0 9:-0.334 
-1.0 -1.0 1.0 1.0 1.0 1.0 1.0 1.0 1.0 1.0 9:-0.386 
-1.0 -1.0 1.0 1.0 1.0 1.0 1.0 1.0 1.0 1.0 9:-0.268 
-1.0 -1.0 1.0 1.0 1.0 1.0 1.0 1.0 1.0 1.0 9:-0.3 
-1.0 -1.0 1.0 1.0 1.0 1.0 1.0 1.0 1.0 1.0 9:-0.344 
-1.0 -1.0 1.0 1.0 1.0 1.0 1.0 1.0 1.0 1.0 9:-0.294 
-1.0 -1.0 1.0 1.0 1.0 1.0 1.0 1.0 1.0 1.0 9:-0.423 
-1.0 -1.0 -1.0 1.0 1.0 1.0 1.0 1.0 1.0 1.0 9:-0.091 
-0.0 -0.0 -1.0 1.0 1.0 1.0 1.0 1.0 1.0 1.0 9:0.119 
-1.0 -1.0 -1.0 1.0 1.0 1.0 1.0 1.0 1.0 1.0 9:0.033 
-1.0 -1.0 -1.0 1.0 1.0 1.0 1.0 1.0 1.0 1.0 9:-0.07 
-1.0 -1.0 -1.0 1.0 1.0 1.0 1.0 1.0 1.0 1.0 9:-0.253 
-1.0 -1.0 -1.0 1.0 1.0 1.0 1.0 1.0 1.0 1.0 9:-0.279 
-1.0 -1.0 -1.0 1.0 1.0 1.0 1.0 1.0 1.0 1.0 9:-0.19 
-1.0 -1.0 -1.0 1.0 1.0 1.0 1.0 1.0 1.0 1.0 9:-0.098 
-1.0 -1.0 -1.0 1.0 1.0 1.0 1.0 1.0 1.0 1.0 9:-0.009 
-1.0 -1.0 -1.0 1.0 1.0 1.0 1.0 1.0 1.0 1.0 9:-0.027 
-1.0 -1.0 -1.0 1.0 1.0 1.0 1.0 1.0 1.0 1.0 9:-0.073 
-1.0 -1.0 -1.0 1.0 1.0 1.0 1.0 1.0 1.0 1.0 9:-0.147 
-1.0 -1.0 -1.0 1.0 1.0 1.0 1.0 1.0 1.0 1.0 9:-0.452 
-1.0 -1.0 -1.0 1.0 1.0 1.0 1.0 1.0 1.0 1.0 9:-0.361 
-1.0 -1.0 -1.0 1.0 1.0 1.0 1.0 1.0 1.0 1.0 9:-0.273 
-1.0 -1.0 -1.0 1.0 1.0 1.0 1.0 1.0 1.0 1.0 9:-0.151 
-1.0 -1.0 -1.0 1.0 1.0 1.0 1.0 1.0 1.0 1.0 9:-0.165 
-1.0 -1.0 -1.0 1.0 1.0 1.0 1.0 1.0 1.0 1.0 9:-0.206 
-0.0 -1.0 -1.0 1.0 1.0 1.0 1.0 1.0 1.0 1.0 9:0.067 
-0.0 -1.0 -1.0 1.0 1.0 1.0 1.0 1.0 1.0 1.0 9:0.115 
-0.10011030226449555 -1.0 -1.0 1.0 1.0 1.0 1.0 1.0 1.0 1.0 9:0.047 
-1.0 -1.0 -1.0 1.0 1.0 1.0 1.0 1.0 1.0 1.0 9:0.033 
-0.0 -0.0 -0.19028681482122523 1.0 1.0 1.0 1.0 1.0 1.0 1.0 9:0.307 
-1.0 -1.0 -1.0 1.0 1.0 1.0 1.0 1.0 1.0 1.0 9:0.027 
-1.0 -1.0 -1.0 1.0 1.0 0.0 0.0 1.0 1.0 1.0 9:-0.694 
-1.0 -1.0 -1.0 1.0 1.0 1.0 1.0 1.0 1.0 1.0 9:-0.627 
-1.0 -1.0 -1.0 1.0 1.0 1.0 1.0 1.0 1.0 1.0 9:-0.611 
-1.0 -1.0 -1.0 1.0 1.0 1.0 0.6981901064334495 1.0 1.0 1.0 9:-0.633 
-1.0 -1.0 -1.0 1.0 1.0 1.0 1.0 1.0 1.0 1.0 9:-0.61 
-1.0 -1.0 -1.0 1.0 1.0 0.1189248953671495 0.0 1.0 1.0 1.0 9:-0.692 
-1.0 -1.0 -1.0 1.0 1.0 1.0 1.0 1.0 1.0 1.0 9:-0.31 
-1.0 -1.0 -1.0 1.0 1.0 1.0 1.0 1.0 1.0 1.0 9:-0.283 
-1.0 -1.0 -1.0 1.0 1.0 1.0 1.0 1.0 1.0 1.0 9:-0.334 
-1.0 -1.0 -1.0 1.0 1.0 1.0 1.0 1.0 1.0 1.0 9:-0.291 
-1.0 -1.0 -1.0 1.0 1.0 1.0 1.0 1.0 1.0 1.0 9:-0.251 
-1.0 -1.0 -1.0 1.0 1.0 1.0 1.0 1.0 1.0 1.0 9:-0.29 
-1.0 -1.0 -1.0 1.0 0.7390735376918905 0.0 0.0 0.8990634719331334 0.0 1.0 9:-0.874 
-1.0 -1.0 -1.0 1.0 1.0 1.0 0.0 1.0 1.0 1.0 9:-0.673 
-1.0 -1.0 -1.0 1.0 1.0 1.0 1.0 1.0 1.0 1.0 9:-0.562 
-1.0 -1.0 -1.0 1.0 1.0 1.0 0.0 1.0 1.0 1.0 9:-0.647 
-1.0 -1.0 -1.0 1.0 1.0 0.0 0.0 1.0 0.0 1.0 9:-0.751 
-1.0 -1.0 -1.0 1.0 1.0 0.0 0.0 1.0 0.0 1.0 9:-0.814 
-1.0 -1.0 -1.0 1.0 1.0 1.0 1.0 1.0 1.0 1.0 9:-0.593 
-1.0 -1.0 -1.0 1.0 1.0 1.0 1.0 1.0 1.0 1.0 9:-0.58 
-1.0 -1.0 -1.0 1.0 1.0 1.0 1.0 1.0 1.0 1.0 9:-0.594 
-1.0 -1.0 -1.0 1.0 1.0 1.0 0.0 1.0 1.0 1.0 9:-0.676 
-1.0 -1.0 -1.0 1.0 1.0 0.0 0.0 1.0 0.6127700103676696 1.0 9:-0.716 
-1.0 -1.0 -1.0 1.0 1.0 1.0 1.0 1.0 1.0 1.0 9:-0.458 
-0.0 -0.0 -0.12955230887994684 -1.0 1.0 1.0 1.0 1.0 1.0 1.0 9:0.277 
-0.0 -0.0 -0.0 -1.0 1.0 1.0 1.0 1.0 1.0 1.0 9:0.309 
-0.0 -1.0 -1.0 -1.0 1.0 1.0 1.0 1.0 1.0 1.0 9:0.139 
-1.0 -1.0 -1.0 -1.0 1.0 1.0 1.0 1.0 1.0 1.0 9:-0.008 
-1.0 -1.0 -1.0 -1.0 1.0 1.0 1.0 1.0 1.0 1.0 9:-0.029 
-1.0 -1.0 -1.0 -1.0 1.0 1.0 1.0 1.0 1.0 1.0 9:-0.218 
-0.0 -0.0 -0.0 -1.0 1.0 1.0 1.0 1.0 1.0 0.5826999098100627 9:0.488 
-0.0 -0.0 -0.0 -1.0 1.0 1.0 1.0 1.0 1.0 1.0 9:0.285 
-0.0 -0.09749079846626273 -1.0 -1.0 1.0 1.0 1.0 1.0 1.0 1.0 9:0.169 
-0.0 -1.0 -1.0 -1.0 1.0 1.0 1.0 1.0 1.0 1.0 9:0.144 
-1.0 -1.0 -1.0 -1.0 1.0 1.0 1.0 1.0 1.0 1.0 9:0.043 
-1.0 -1.0 -1.0 -1.0 1.0 1.0 1.0 1.0 1.0 1.0 9:0.109 
-1.0 -1.0 -1.0 -1.0 1.0 1.0 1.0 1.0 1.0 1.0 9:-0.067 
-1.0 -1.0 -1.0 -1.0 1.0 1.0 1.0 1.0 1.0 1.0 9:-0.045 
-1.0 -1.0 -1.0 -1.0 1.0 1.0 1.0 1.0 1.0 1.0 9:-0.013 
-1.0 -1.0 -1.0 -1.0 1.0 1.0 1.0 1.0 1.0 1.0 9:0.008 
-0.9216900536137336 -1.0 -1.0 -1.0 1.0 1.0 1.0 1.0 1.0 1.0 9:0.137 
-1.0 -1.0 -1.0 -1.0 1.0 1.0 1.0 1.0 1.0 1.0 9:0.121 
-1.0 -1.0 -1.0 -1.0 1.0 1.0 1.0 1.0 1.0 1.0 9:0.032 
-1.0 -1.0 -1.0 -1.0 1.0 1.0 1.0 1.0 1.0 1.0 9:0.07 
-1.0 -1.0 -1.0 -1.0 1.0 1.0 1.0 1.0 1.0 1.0 9:0.123 
-0.0 -1.0 -1.0 -1.0 1.0 1.0 1.0 1.0 1.0 1.0 9:0.16 
-1.0 -1.0 -1.0 -1.0 1.0 1.0 1.0 1.0 1.0 1.0 9:0.07 
-1.0 -1.0 -1.0 -1.0 1.0 1.0 1.0 1.0 1.0 1.0 9:0.05 
-1.0 -1.0 -1.0 -1.0 1.0 1.0 1.0 1.0 1.0 1.0 9:-0.454 
-1.0 -1.0 -1.0 -1.0 1.0 1.0 1.0 1.0 1.0 1.0 9:-0.481 
-1.0 -1.0 -1.0 -1.0 1.0 1.0 1.0 1.0 1.0 1.0 9:-0.475 
-1.0 -1.0 -1.0 -1.0 1.0 0.0 1.0 1.0 1.0 1.0 9:-0.744 
-1.0 -1.0 -1.0 -1.0 1.0 1.0 0.0 1.0 1.0 1.0 9:-0.905 
-1.0 -1.0 -1.0 -1.0 1.0 0.0 1.0 1.0 1.0 1.0 9:-0.764 
-1.0 -1.0 -1.0 -1.0 1.0 1.0 1.0 1.0 1.0 1.0 9:-0.157 
-1.0 -1.0 -1.0 -1.0 1.0 1.0 1.0 1.0 1.0 1.0 9:-0.093 
-1.0 -1.0 -1.0 -1.0 1.0 1.0 1.0 1.0 1.0 1.0 9:-0.141 
-1.0 -1.0 -1.0 -1.0 1.0 1.0 1.0 1.0 1.0 1.0 9:-0.114 
-1.0 -1.0 -1.0 -1.0 1.0 1.0 1.0 1.0 1.0 1.0 9:-0.017 
-1.0 -1.0 -1.0 -1.0 1.0 1.0 1.0 1.0 1.0 1.0 9:-0.078 
-1.0 -1.0 -1.0 -1.0 1.0 1.0 0.0 1.0 1.0 1.0 9:-0.966 
-1.0 -1.0 -1.0 -1.0 1.0 1.0 0.0 1.0 1.0 1.0 9:-0.902 
-1.0 -1.0 -1.0 -1.0 1.0 1.0 0.0 1.0 1.0 1.0 9:-0.946 
-1.0 -1.0 -1.0 -1.0 1.0 0.7012983070326431 0.0 1.0 1.0 1.0 9:-0.871 
-1.0 -1.0 -1.0 -1.0 1.0 1.0 1.0 1.0 0.42628758562159447 1.0 9:-0.651 
-1.0 -1.0 -1.0 -1.0 1.0 1.0 1.0 1.0 1.0 1.0 9:-0.535 
-1.0 -1.0 -1.0 -1.0 1.0 1.0 1.0 1.0 1.0 1.0 9:-0.669 
-1.0 -1.0 -1.0 -1.0 1.0 1.0 1.0 1.0 1.0 1.0 9:-0.566 
-1.0 -1.0 -1.0 -1.0 1.0 1.0 1.0 1.0 1.0 1.0 9:-0.375 
-1.0 -1.0 -1.0 -1.0 1.0 1.0 1.0 1.0 1.0 1.0 9:-0.275 
-1.0 -1.0 -1.0 -1.0 1.0 1.0 1.0 1.0 1.0 1.0 9:-0.338 
-1.0 -1.0 -1.0 -1.0 1.0 1.0 1.0 1.0 1.0 1.0 9:-0.471 
-1.0 -1.0 -1.0 -1.0 -1.0 1.0 1.0 1.0 1.0 1.0 9:0.238 
-1.0 -1.0 -1.0 -1.0 -1.0 1.0 1.0 1.0 1.0 1.0 9:0.256 
-1.0 -1.0 -1.0 -1.0 -1.0 1.0 1.0 1.0 1.0 1.0 9:0.207 
-1.0 -1.0 -1.0 -1.0 -1.0 1.0 1.0 1.0 1.0 1.0 9:0.035 
-1.0 -1.0 -1.0 -1.0 -1.0 1.0 1.0 1.0 1.0 1.0 9:-0.08 
-1.0 -1.0 -1.0 -1.0 -1.0 1.0 1.0 1.0 1.0 1.0 9:0.067 
-0.0 -0.0 -0.0 -0.7390735376918904 -1.0 1.0 1.0 1.0 1.0 1.0 9:0.852 
-0.0 -0.0 -0.0 -1.0 -1.0 1.0 1.0 1.0 1.0 1.0 9:0.792 
-0.5650592891460882 -1.0 -1.0 -1.0 -1.0 1.0 1.0 1.0 1.0 1.0 9:0.66 
-0.0 -0.8074072479010275 -1.0 -1.0 -1.0 1.0 1.0 1.0 1.0 1.0 9:0.744 
-0.0 -0.0 -0.0 -1.0 -1.0 1.0 1.0 1.0 1.0 1.0 9:0.848 
-0.0 -0.0 -0.1981874557948504 -1.0 -1.0 1.0 1.0 1.0 1.0 1.0 9:0.788 
-1.0 -1.0 -1.0 -1.0 -1.0 1.0 1.0 1.0 1.0 1.0 9:-0.37 
-1.0 -1.0 -1.0 -1.0 -1.0 1.0 1.0 1.0 1.0 1.0 9:-0.396 
-1.0 -1.0 -1.0 -1.0 -1.0 1.0 1.0 1.0 1.0 1.0 9:-0.283 
-1.0 -1.0 -1.0 -1.0 -1.0 1.0 1.0 1.0 1.0 1.0 9:-0.239 
-1.0 -1.0 -1.0 -1.0 -1.0 1.0 1.0 1.0 1.0 1.0 9:-0.274 
-1.0 -1.0 -1.0 -1.0 -1.0 1.0 1.0 1.0 1.0 1.0 9:-0.228 
-1.0 -1.0 -1.0 -1.0 -1.0 1.0 1.0 1.0 1.0 1.0 9:0.26 
-1.0 -1.0 -1.0 -1.0 -1.0 1.0 1.0 1.0 1.0 1.0 9:0.446 
-1.0 -1.0 -1.0 -1.0 -1.0 1.0 1.0 1.0 1.0 1.0 9:0.367 
-1.0 -1.0 -1.0 -1.0 -1.0 1.0 1.0 1.0 1.0 1.0 9:0.618 
-0.0 -1.0 -1.0 -1.0 -1.0 1.0 1.0 1.0 1.0 1.0 9:0.709 
-1.0 -1.0 -1.0 -1.0 -1.0 1.0 1.0 1.0 1.0 1.0 9:0.589 
-1.0 -1.0 -1.0 -1.0 -1.0 1.0 1.0 1.0 1.0 1.0 9:-0.809 
-1.0 -1.0 -1.0 -1.0 -1.0 1.0 1.0 1.0 1.0 1.0 9:-0.599 
-1.0 -1.0 -1.0 -1.0 -1.0 1.0 1.0 1.0 1.0 1.0 9:-0.707 
-1.0 -1.0 -1.0 -1.0 -1.0 1.0 1.0 1.0 1.0 1.0 9:-0.995 
-1.0 -1.0 -1.0 -1.0 -1.0 1.0 0.0 1.0 1.0 1.0 9:-1.146 
-1.0 -1.0 -1.0 -1.0 -1.0 1.0 1.0 1.0 1.0 1.0 9:-0.945 
-1.0 -1.0 -1.0 -1.0 -1.0 1.0 1.0 1.0 1.0 1.0 9:-0.218 
-1.0 -1.0 -1.0 -1.0 -1.0 1.0 1.0 1.0 1.0 1.0 9:-0.094 
-1.0 -1.0 -1.0 -1.0 -1.0 1.0 1.0 1.0 1.0 1.0 9:-0.06 
-1.0 -1.0 -1.0 -1.0 -1.0 1.0 1.0 1.0 1.0 1.0 9:-0.138 
-1.0 -1.0 -1.0 -1.0 -1.0 1.0 1.0 1.0 1.0 1.0 9:-0.416 
-1.0 -1.0 -1.0 -1.0 -1.0 1.0 1.0 1.0 1.0 1.0 9:-0.54 
-1.0 -1.0 -1.0 -1.0 -1.0 1.0 0.1278519320359372 1.0 1.0 1.0 9:-1.126 
-1.0 -1.0 -1.0 -1.0 -1.0 0.07142862582113486 0.0 1.0 1.0 1.0 9:-1.206 
-1.0 -1.0 -1.0 -1.0 -1.0 0.0 0.0 1.0 0.8062119402992121 1.0 9:-1.207 
-1.0 -1.0 -1.0 -1.0 -1.0 1.0 0.0 1.0 1.0 1.0 9:-1.177 
-1.0 -1.0 -1.0 -1.0 -1.0 1.0 1.0 1.0 1.0 1.0 9:-1.059 
-1.0 -1.0 -1.0 -1.0 -1.0 1.0 1.0 1.0 1.0 1.0 9:-0.684 
-1.0 -1.0 -1.0 -1.0 -1.0 1.0 1.0 1.0 1.0 1.0 9:-0.584 
-1.0 -1.0 -1.0 -1.0 -1.0 1.0 1.0 1.0 1.0 1.0 9:-0.704 
-1.0 -1.0 -1.0 -1.0 -1.0 1.0 1.0 1.0 1.0 1.0 9:-0.536 
-1.0 -1.0 -1.0 -1.0 -1.0 1.0 1.0 1.0 1.0 1.0 9:-0.473 
-1.0 -1.0 -1.0 -1.0 -1.0 1.0 1.0 1.0 1.0 1.0 9:-0.603 
-1.0 -1.0 -1.0 -1.0 -1.0 1.0 1.0 1.0 1.0 1.0 9:-0.54 
-1.0 -1.0 -1.0 -1.0 -1.0 -1.0 1.0 1.0 1.0 1.0 9:0.377 
-1.0 -1.0 -1.0 -1.0 -1.0 -1.0 1.0 1.0 1.0 1.0 9:0.415 
-1.0 -1.0 -1.0 -1.0 -1.0 -1.0 1.0 1.0 1.0 1.0 9:0.343 
-1.0 -1.0 -1.0 -1.0 -1.0 -1.0 1.0 1.0 1.0 1.0 9:0.443 
-1.0 -1.0 -1.0 -1.0 -1.0 -1.0 1.0 1.0 1.0 1.0 9:0.473 
-1.0 -1.0 -1.0 -1.0 -1.0 -1.0 1.0 1.0 1.0 1.0 9:0.426 
-1.0 -1.0 -1.0 -1.0 -1.0 -1.0 1.0 1.0 1.0 1.0 9:0.547 
-0.0 -0.0 -0.0 -0.11892489536714938 -1.0 -1.0 1.0 1.0 1.0 1.0 9:0.982 
-0.0 -1.0 -1.0 -1.0 -1.0 -1.0 1.0 1.0 1.0 1.0 9:0.892 
-0.0 -0.0 -0.0 -1.0 -1.0 -1.0 1.0 1.0 1.0 1.0 9:0.958 
-0.0 -0.0 -0.0 -0.0 -0.0 -0.0 1.0 0.0 1.0 0.0 9:1.073 
-0.0 -0.0 -0.0 -0.0 -1.0 -1.0 1.0 1.0 1.0 0.95879696232115 9:0.999 
-1.0 -1.0 -1.0 -1.0 -1.0 -1.0 1.0 1.0 1.0 1.0 9:0.033 
-1.0 -1.0 -1.0 -1.0 -1.0 -1.0 1.0 1.0 1.0 1.0 9:0.133 
-1.0 -1.0 -1.0 -1.0 -1.0 -1.0 1.0 1.0 1.0 1.0 9:0.128 
-1.0 -1.0 -1.0 -1.0 -1.0 -1.0 1.0 1.0 1.0 1.0 9:0.196 
-1.0 -1.0 -1.0 -1.0 -1.0 -1.0 1.0 1.0 1.0 1.0 9:0.11 
-1.0 -1.0 -1.0 -1.0 -1.0 -1.0 1.0 1.0 1.0 1.0 9:0.058 
-0.0 -0.0 -0.0 -0.0 -0.0 -0.07142862582113486 1.0 0.25946902791157295 1.0 0.0 9:1.045 
-0.0 -0.0 -0.0 -0.0 -1.0 -1.0 1.0 1.0 1.0 0.0 9:1.007 
-0.0 -0.0 -0.0 -0.0 -0.701298307032643 -1.0 1.0 1.0 1.0 0.0 9:1.02 
-0.0 -0.0 -0.0 -1.0 -1.0 -1.0 1.0 1.0 1.0 1.0 9:0.958 
-0.9377083319886708 -1.0 -1.0 -1.0 -1.0 -1.0 1.0 1.0 1.0 1.0 9:0.866 
-0.0 -0.5357917385364659 -0.1384918531206678 -1.0 -1.0 -1.0 1.0 1.0 1.0 1.0 9:0.92 
-1.0 -1.0 -1.0 -1.0 -1.0 -1.0 1.0 1.0 1.0 1.0 9:-0.243 
-1.0 -1.0 -1.0 -1.0 -1.0 -1.0 1.0 1.0 1.0 1.0 9:-0.304 
-1.0 -1.0 -1.0 -1.0 -1.0 -1.0 1.0 1.0 1.0 1.0 9:-0.353 
-1.0 -1.0 -1.0 -1.0 -1.0 -1.0 1.0 1.0 1.0 1.0 9:-0.641 
-1.0 -1.0 -1.0 -1.0 -1.0 -1.0 1.0 1.0 1.0 1.0 9:-0.722 
-1.0 -1.0 -1.0 -1.0 -1.0 -1.0 1.0 1.0 1.0 1.0 9:-0.58 
-1.0 -1.0 -1.0 -1.0 -1.0 -1.0 1.0 1.0 1.0 1.0 9:-0.11 
-1.0 -1.0 -1.0 -1.0 -1.0 -1.0 1.0 1.0 1.0 1.0 9:-0.302 
-1.0 -1.0 -1.0 -1.0 -1.0 -1.0 1.0 1.0 1.0 1.0 9:-0.297 
-1.0 -1.0 -1.0 -1.0 -1.0 -1.0 1.0 1.0 1.0 1.0 9:-0.174 
-1.0 -1.0 -1.0 -1.0 -1.0 -1.0 1.0 1.0 1.0 1.0 9:-0.118 
-1.0 -1.0 -1.0 -1.0 -1.0 -1.0 1.0 1.0 1.0 1.0 9:-0.08 
-1.0 -1.0 -1.0 -1.0 -1.0 -1.0 1.0 1.0 1.0 1.0 9:-0.162 
-1.0 -1.0 -1.0 -1.0 -1.0 -1.0 1.0 1.0 1.0 1.0 9:-0.022 
-1.0 -1.0 -1.0 -1.0 -1.0 -1.0 1.0 1.0 1.0 1.0 9:-0.164 
-1.0 -1.0 -1.0 -1.0 -1.0 -1.0 1.0 1.0 1.0 1.0 9:-0.635 
-1.0 -1.0 -1.0 -1.0 -1.0 -1.0 1.0 1.0 1.0 1.0 9:-1.02 
-1.0 -1.0 -1.0 -1.0 -1.0 -1.0 1.0 1.0 1.0 1.0 9:-0.951 
-1.0 -1.0 -1.0 -1.0 -1.0 -1.0 0.11660178182735756 1.0 1.0 1.0 9:-1.613 
-1.0 -1.0 -1.0 -1.0 -1.0 -1.0 1.0 1.0 1.0 1.0 9:-1.609 
-1.0 -1.0 -1.0 -1.0 -1.0 -1.0 1.0 1.0 1.0 1.0 9:-1.309 
-1.0 -1.0 -1.0 -1.0 -1.0 -1.0 1.0 1.0 1.0 1.0 9:-1.479 
-1.0 -1.0 -1.0 -1.0 -1.0 -1.0 1.0 1.0 1.0 1.0 9:-1.515 
-1.0 -1.0 -1.0 -1.0 -1.0 -1.0 1.0 1.0 1.0 1.0 9:-1.452 
-1.0 -1.0 -1.0 -1.0 -1.0 -1.0 -1.0 1.0 1.0 1.0 9:0.575 
-1.0 -1.0 -1.0 -1.0 -1.0 -1.0 -1.0 1.0 1.0 1.0 9:0.598 
-1.0 -1.0 -1.0 -1.0 -1.0 -1.0 -1.0 1.0 1.0 1.0 9:0.566 
-0.0 -0.0 -0.0 -0.0 -0.0 -0.12785193203593712 -1.0 0.397642240759582 1.0 0.0 9:0.775 
-0.2584820360304926 -1.0 -1.0 -1.0 -1.0 -1.0 -1.0 1.0 1.0 1.0 9:0.606 
-1.0 -1.0 -1.0 -1.0 -1.0 -1.0 -1.0 1.0 1.0 1.0 9:0.565 
-1.0 -1.0 -1.0 -1.0 -1.0 -1.0 -1.0 1.0 1.0 1.0 9:-0.078 
-1.0 -1.0 -1.0 -1.0 -1.0 -1.0 -1.0 1.0 1.0 1.0 9:-0.185 
-1.0 -1.0 -1.0 -1.0 -1.0 -1.0 -1.0 1.0 1.0 1.0 9:-0.295 
-1.0 -1.0 -1.0 -1.0 -1.0 -1.0 -1.0 1.0 1.0 1.0 9:-0.328 
-1.0 -1.0 -1.0 -1.0 -1.0 -1.0 -1.0 1.0 1.0 1.0 9:-0.165 
-1.0 -1.0 -1.0 -1.0 -1.0 -1.0 -1.0 1.0 1.0 1.0 9:-0.032 
-1.0 -1.0 -1.0 -1.0 -1.0 -1.0 -1.0 1.0 1.0 1.0 9:0.29 
-1.0 -1.0 -1.0 -1.0 -1.0 -1.0 -1.0 1.0 1.0 1.0 9:0.425 
-1.0 -1.0 -1.0 -1.0 -1.0 -1.0 -1.0 1.0 1.0 1.0 9:0.5 
-0.0 -0.9007483027826497 -0.829367848508711 -1.0 -1.0 -1.0 -1.0 1.0 1.0 1.0 9:0.616 
-1.0 -1.0 -1.0 -1.0 -1.0 -1.0 -1.0 1.0 1.0 1.0 9:0.346 
-1.0 -1.0 -1.0 -1.0 -1.0 -1.0 -1.0 1.0 1.0 1.0 9:0.545 
-0.0 -0.0 -0.0 -0.0 -1.0 -1.0 -1.0 1.0 1.0 0.0 9:0.767 
-0.0 -0.0 -0.0 -0.0 -1.0 -1.0 -1.0 1.0 1.0 1.0 9:0.738 
-0.0 -0.0 -0.0 -0.0 -1.0 -1.0 -1.0 1.0 1.0 0.25150055325020043 9:0.754 
-0.0 -0.0 -0.0 -0.0 -0.0 -0.0 -1.0 0.0 0.36599233205889536 0.0 9:0.843 
-0.0 -0.0 -0.0 -0.0 -0.0 -0.0 -0.11660178182735756 0.0 0.0 0.0 9:0.873 
-0.0 -0.0 -0.0 -0.0 -0.0 -0.0 -1.0 0.0 0.0 0.0 9:0.844 
-1.0 -1.0 -1.0 -1.0 -1.0 -1.0 -1.0 1.0 1.0 1.0 9:-0.257 
-1.0 -1.0 -1.0 -1.0 -1.0 -1.0 -1.0 1.0 1.0 1.0 9:-0.049 
-1.0 -1.0 -1.0 -1.0 -1.0 -1.0 -1.0 1.0 1.0 1.0 9:0.03 
-1.0 -1.0 -1.0 -1.0 -1.0 -1.0 -1.0 1.0 1.0 1.0 9:0.075 
-1.0 -1.0 -1.0 -1.0 -1.0 -1.0 -1.0 1.0 1.0 1.0 9:0.091 
-1.0 -1.0 -1.0 -1.0 -1.0 -1.0 -1.0 1.0 1.0 1.0 9:0.061 
-1.0 -1.0 -1.0 -1.0 -1.0 -1.0 -1.0 1.0 1.0 1.0 9:0.564 
-0.0 -0.0 -0.0 -1.0 -1.0 -1.0 -1.0 1.0 1.0 1.0 9:0.669 
-0.0 -0.0 -0.0 -0.6981901064334495 -1.0 -1.0 -1.0 1.0 1.0 1.0 9:0.701 
-0.0 -0.0 -0.0 -1.0 -1.0 -1.0 -1.0 1.0 1.0 1.0 9:0.691 
-0.0 -0.0 -0.0 -0.0 -0.0 -0.0 -1.0 0.0 1.0 0.0 9:0.802 
-0.0 -0.0 -0.0 -0.0 -1.0 -1.0 -1.0 1.0 1.0 1.0 9:0.717 
-1.0 -1.0 -1.0 -1.0 -1.0 -1.0 -1.0 1.0 1.0 1.0 9:-0.035 
-1.0 -1.0 -1.0 -1.0 -1.0 -1.0 -1.0 1.0 1.0 1.0 9:-0.399 
-1.0 -1.0 -1.0 -1.0 -1.0 -1.0 -1.0 1.0 1.0 1.0 9:-0.613 
-1.0 -1.0 -1.0 -1.0 -1.0 -1.0 -1.0 1.0 1.0 1.0 9:-0.757 
-1.0 -1.0 -1.0 -1.0 -1.0 -1.0 -1.0 1.0 1.0 1.0 9:-0.825 
-1.0 -1.0 -1.0 -1.0 -1.0 -1.0 -1.0 1.0 1.0 1.0 9:-0.477 
-1.0 -1.0 -1.0 -1.0 -1.0 -1.0 -1.0 1.0 1.0 1.0 9:-1.131 
-1.0 -1.0 -1.0 -1.0 -1.0 -1.0 -1.0 1.0 1.0 1.0 9:-1.355 
-1.0 -1.0 -1.0 -1.0 -1.0 -1.0 -1.0 1.0 1.0 1.0 9:-1.087 
-1.0 -1.0 -1.0 -1.0 -1.0 -1.0 -1.0 1.0 1.0 1.0 9:-1.036 
-1.0 -1.0 -1.0 -1.0 -1.0 -1.0 -1.0 1.0 1.0 1.0 9:-0.908 
-1.0 -1.0 -1.0 -1.0 -1.0 -1.0 -1.0 1.0 1.0 1.0 9:-0.601 
-1.0 -1.0 -1.0 -1.0 -1.0 -1.0 -1.0 -1.0 1.0 1.0 9:-0.167 
-1.0 -1.0 -1.0 -1.0 -1.0 -1.0 -1.0 -1.0 1.0 1.0 9:0.392 
-1.0 -1.0 -1.0 -1.0 -1.0 -1.0 -1.0 -1.0 1.0 1.0 9:0.159 
-1.0 -1.0 -1.0 -1.0 -1.0 -1.0 -1.0 -1.0 1.0 1.0 9:0.235 
-1.0 -1.0 -1.0 -1.0 -1.0 -1.0 -1.0 -1.0 1.0 1.0 9:0.181 
-1.0 -1.0 -1.0 -1.0 -1.0 -1.0 -1.0 -1.0 1.0 1.0 9:-0.277 
-0.0 -0.8878829210260604 -1.0 -1.0 -1.0 -1.0 -1.0 -1.0 1.0 1.0 9:0.565 
-1.0 -1.0 -1.0 -1.0 -1.0 -1.0 -1.0 -1.0 1.0 1.0 9:0.34 
-1.0 -1.0 -1.0 -1.0 -1.0 -1.0 -1.0 -1.0 1.0 1.0 9:0.131 
-1.0 -1.0 -1.0 -1.0 -1.0 -1.0 -1.0 -1.0 1.0 1.0 9:0.129 
-1.0 -1.0 -1.0 -1.0 -1.0 -1.0 -1.0 -1.0 1.0 1.0 9:0.286 
-1.0 -1.0 -1.0 -1.0 -1.0 -1.0 -1.0 -1.0 1.0 1.0 9:0.305 
-0.0 -0.0 -0.0 -1.0 -1.0 -1.0 -1.0 -1.0 1.0 1.0 9:0.598 
-1.0 -1.0 -1.0 -1.0 -1.0 -1.0 -1.0 -1.0 1.0 1.0 9:0.396 
-1.0 -1.0 -1.0 -1.0 -1.0 -1.0 -1.0 -1.0 1.0 1.0 9:0.45 
-0.0 -0.0 -0.0 -1.0 -1.0 -1.0 -1.0 -1.0 1.0 1.0 9:0.625 
-0.0 -0.0 -0.0 -0.8990634719331334 -1.0 -1.0 -1.0 -1.0 1.0 1.0 9:0.731 
-0.0 -1.0 -1.0 -1.0 -1.0 -1.0 -1.0 -1.0 1.0 1.0 9:0.548 
-0.525004798344516 -1.0 -1.0 -1.0 -1.0 -1.0 -1.0 -1.0 1.0 1.0 9:0.493 
-0.0 -0.0 -0.3887218112102338 -1.0 -1.0 -1.0 -1.0 -1.0 1.0 1.0 9:0.576 
-1.0 -1.0 -1.0 -1.0 -1.0 -1.0 -1.0 -1.0 1.0 1.0 9:0.434 
-1.0 -1.0 -1.0 -1.0 -1.0 -1.0 -1.0 -1.0 1.0 1.0 9:0.328 
-1.0 -1.0 -1.0 -1.0 -1.0 -1.0 -1.0 -1.0 1.0 1.0 9:0.221 
-1.0 -1.0 -1.0 -1.0 -1.0 -1.0 -1.0 -1.0 1.0 1.0 9:-0.056 
-1.0 -1.0 -1.0 -1.0 -1.0 -1.0 -1.0 -1.0 1.0 1.0 9:-0.546 
-1.0 -1.0 -1.0 -1.0 -1.0 -1.0 -1.0 -1.0 1.0 1.0 9:-0.721 
-1.0 -1.0 -1.0 -1.0 -1.0 -1.0 -1.0 -1.0 1.0 1.0 9:-0.543 
-1.0 -1.0 -1.0 -1.0 -1.0 -1.0 -1.0 -1.0 1.0 1.0 9:-0.473 
-1.0 -1.0 -1.0 -1.0 -1.0 -1.0 -1.0 -1.0 1.0 1.0 9:-0.478 
-1.0 -1.0 -1.0 -1.0 -1.0 -1.0 -1.0 -1.0 1.0 1.0 9:-0.658 
-1.0 -1.0 -1.0 -1.0 -1.0 -1.0 -1.0 -1.0 1.0 1.0 9:-0.134 
-1.0 -1.0 -1.0 -1.0 -1.0 -1.0 -1.0 -1.0 1.0 1.0 9:0.146 
-1.0 -1.0 -1.0 -1.0 -1.0 -1.0 -1.0 -1.0 1.0 1.0 9:-0.024 
-1.0 -1.0 -1.0 -1.0 -1.0 -1.0 -1.0 -1.0 1.0 1.0 9:0.247 
-1.0 -1.0 -1.0 -1.0 -1.0 -1.0 -1.0 -1.0 1.0 1.0 9:0.194 
-1.0 -1.0 -1.0 -1.0 -1.0 -1.0 -1.0 -1.0 1.0 1.0 9:-0.123 
-1.0 -1.0 -1.0 -1.0 -1.0 -1.0 -1.0 -1.0 1.0 1.0 9:-1.253 
-1.0 -1.0 -1.0 -1.0 -1.0 -1.0 -1.0 -1.0 1.0 1.0 9:-1.207 
-1.0 -1.0 -1.0 -1.0 -1.0 -1.0 -1.0 -1.0 1.0 1.0 9:-1.327 
-1.0 -1.0 -1.0 -1.0 -1.0 -1.0 -0.2594690279115729 -0.0 1.0 1.0 9:-1.45 
-1.0 -1.0 -1.0 -1.0 -1.0 -1.0 -1.0 -0.0 1.0 1.0 9:-1.412 
-1.0 -1.0 -1.0 -1.0 -1.0 -1.0 -1.0 -1.0 1.0 1.0 9:-0.896 
-1.0 -1.0 -1.0 -1.0 -1.0 -1.0 -1.0 -1.0 1.0 1.0 9:-1.248 
-1.0 -1.0 -1.0 -1.0 -1.0 -1.0 -0.0 -0.0 0.848396622264747 1.0 9:-1.555 
-1.0 -1.0 -1.0 -1.0 -1.0 -1.0 -1.0 -1.0 1.0 1.0 9:-1.336 
-1.0 -1.0 -1.0 -1.0 -1.0 -1.0 -1.0 -1.0 1.0 1.0 9:-1.256 
-1.0 -1.0 -1.0 -1.0 -1.0 -1.0 -1.0 -0.0 1.0 1.0 9:-1.355 
-1.0 -1.0 -1.0 -1.0 -1.0 -1.0 -1.0 -0.3976422407595819 1.0 1.0 9:-1.343 
-1.0 -1.0 -1.0 -1.0 -1.0 -1.0 -1.0 -1.0 -1.0 1.0 9:0.06 
-1.0 -1.0 -1.0 -1.0 -1.0 -1.0 -1.0 -1.0 -1.0 1.0 9:-0.066 
-1.0 -1.0 -1.0 -1.0 -1.0 -1.0 -1.0 -1.0 -1.0 1.0 9:-0.169 
-1.0 -1.0 -1.0 -1.0 -1.0 -1.0 -1.0 -1.0 -1.0 1.0 9:0.206 
-1.0 -1.0 -1.0 -1.0 -1.0 -1.0 -1.0 -1.0 -1.0 1.0 9:0.245 
-1.0 -1.0 -1.0 -1.0 -1.0 -1.0 -1.0 -1.0 -1.0 1.0 9:-0.106 
-1.0 -1.0 -1.0 -1.0 -1.0 -1.0 -1.0 -1.0 -1.0 1.0 9:0.161 
-1.0 -1.0 -1.0 -1.0 -1.0 -1.0 -1.0 -1.0 -1.0 1.0 9:0.382 
-1.0 -1.0 -1.0 -1.0 -1.0 -1.0 -1.0 -1.0 -1.0 1.0 9:0.254 
-1.0 -1.0 -1.0 -1.0 -1.0 -1.0 -1.0 -1.0 -1.0 1.0 9:0.369 
-1.0 -1.0 -1.0 -1.0 -1.0 -1.0 -1.0 -1.0 -1.0 1.0 9:0.093 
-1.0 -1.0 -1.0 -1.0 -1.0 -1.0 -1.0 -1.0 -1.0 1.0 9:-0.453 
-0.0 -0.0 -0.0 -0.0 -0.42628758562159447 -0.8062119402992121 -1.0 -1.0 -0.8483966222647471 0.0 9:1.309 
-0.0 -0.0 -0.0 -0.0 -1.0 -1.0 -1.0 -1.0 -1.0 0.0 9:1.206 
-0.0 -0.0 -0.0 -0.6127700103676696 -1.0 -1.0 -1.0 -1.0 -1.0 1.0 9:1.103 
-0.0 -0.0 -0.0 -0.0 -1.0 -1.0 -1.0 -1.0 -1.0 1.0 9:1.127 
-0.0 -0.0 -0.0 -1.0 -1.0 -1.0 -1.0 -1.0 -1.0 1.0 9:1.074 
-0.0 -0.0 -0.0 -1.0 -1.0 -1.0 -1.0 -1.0 -1.0 1.0 9:1.058 
-0.0 -1.0 -1.0 -1.0 -1.0 -1.0 -1.0 -1.0 -1.0 1.0 9:0.558 
-0.22961257872017538 -1.0 -1.0 -1.0 -1.0 -1.0 -1.0 -1.0 -1.0 1.0 9:0.536 
-1.0 -1.0 -1.0 -1.0 -1.0 -1.0 -1.0 -1.0 -1.0 1.0 9:0.509 
-1.0 -1.0 -1.0 -1.0 -1.0 -1.0 -1.0 -1.0 -1.0 1.0 9:0.492 
-1.0 -1.0 -1.0 -1.0 -1.0 -1.0 -1.0 -1.0 -1.0 1.0 9:0.447 
-1.0 -1.0 -1.0 -1.0 -1.0 -1.0 -1.0 -1.0 -1.0 1.0 9:0.431 
-1.0 -1.0 -1.0 -1.0 -1.0 -1.0 -1.0 -1.0 -1.0 1.0 9:-0.999 
-1.0 -1.0 -1.0 -1.0 -1.0 -1.0 -1.0 -1.0 -1.0 1.0 9:-0.874 
-1.0 -1.0 -1.0 -1.0 -1.0 -1.0 -1.0 -1.0 -1.0 1.0 9:-0.917 
-1.0 -1.0 -1.0 -1.0 -1.0 -1.0 -1.0 -1.0 -1.0 1.0 9:-0.828 
-1.0 -1.0 -1.0 -1.0 -1.0 -1.0 -1.0 -1.0 -1.0 1.0 9:-0.704 
-1.0 -1.0 -1.0 -1.0 -1.0 -1.0 -1.0 -1.0 -1.0 1.0 9:-0.459 
-1.0 -1.0 -1.0 -1.0 -1.0 -1.0 -1.0 -1.0 -1.0 1.0 9:-0.264 
-1.0 -1.0 -1.0 -1.0 -1.0 -1.0 -1.0 -1.0 -1.0 1.0 9:-0.168 
-1.0 -1.0 -1.0 -1.0 -1.0 -1.0 -1.0 -1.0 -1.0 1.0 9:0.203 
-1.0 -1.0 -1.0 -1.0 -1.0 -1.0 -1.0 -1.0 -1.0 1.0 9:0.124 
-1.0 -1.0 -1.0 -1.0 -1.0 -1.0 -1.0 -1.0 -1.0 1.0 9:-0.024 
-1.0 -1.0 -1.0 -1.0 -1.0 -1.0 -1.0 -1.0 -1.0 1.0 9:0.018 
-1.0 -1.0 -1.0 -1.0 -1.0 -1.0 -1.0 -1.0 -1.0 1.0 9:-1.26 
-1.0 -1.0 -1.0 -1.0 -1.0 -1.0 -1.0 -0.0 -1.0 1.0 9:-1.407 
-1.0 -1.0 -1.0 -1.0 -1.0 -1.0 -1.0 -0.0 -1.0 1.0 9:-1.412 
-1.0 -1.0 -1.0 -1.0 -1.0 -1.0 -1.0 -1.0 -1.0 1.0 9:-1.319 
-1.0 -1.0 -1.0 -1.0 -1.0 -1.0 -1.0 -1.0 -1.0 1.0 9:-1.308 
-1.0 -1.0 -1.0 -1.0 -1.0 -1.0 -1.0 -0.36599233205889536 -1.0 1.0 9:-1.389 
-1.0 -1.0 -1.0 -1.0 -1.0 -1.0 -1.0 -1.0 -1.0 1.0 9:-0.906 
-1.0 -1.0 -1.0 -1.0 -1.0 -1.0 -1.0 -1.0 -1.0 1.0 9:-0.783 
-1.0 -1.0 -1.0 -1.0 -1.0 -1.0 -1.0 -1.0 -1.0 1.0 9:-0.841 
-1.0 -1.0 -1.0 -1.0 -1.0 -1.0 -1.0 -1.0 -1.0 1.0 9:-0.178 
-1.0 -1.0 -1.0 -1.0 -1.0 -1.0 -1.0 -1.0 -1.0 1.0 9:-0.177 
-1.0 -1.0 -1.0 -1.0 -1.0 -1.0 -1.0 -1.0 -1.0 1.0 9:-0.283 
-1.0 -1.0 -1.0 -1.0 -1.0 -1.0 -1.0 -1.0 -1.0 -1.0 9:-0.018 
-1.0 -1.0 -1.0 -1.0 -1.0 -1.0 -1.0 -1.0 -1.0 -1.0 9:-0.07 
-1.0 -1.0 -1.0 -1.0 -1.0 -1.0 -1.0 -1.0 -1.0 -1.0 9:-0.204 
-1.0 -1.0 -1.0 -1.0 -1.0 -1.0 -1.0 -1.0 -1.0 -1.0 9:-0.303 
-1.0 -1.0 -1.0 -1.0 -1.0 -1.0 -1.0 -1.0 -1.0 -1.0 9:-0.15 
-1.0 -1.0 -1.0 -1.0 -1.0 -1.0 -1.0 -1.0 -1.0 -1.0 9:-0.13 
-1.0 -1.0 -1.0 -1.0 -1.0 -1.0 -1.0 -1.0 -1.0 -1.0 9:0.101 
-1.0 -1.0 -1.0 -1.0 -1.0 -1.0 -1.0 -1.0 -1.0 -1.0 9:-0.221 
-1.0 -1.0 -1.0 -1.0 -1.0 -1.0 -1.0 -1.0 -1.0 -1.0 9:-0.346 
-1.0 -1.0 -1.0 -1.0 -1.0 -1.0 -1.0 -1.0 -1.0 -1.0 9:0.021 
-1.0 -1.0 -1.0 -1.0 -1.0 -1.0 -1.0 -1.0 -1.0 -1.0 9:0.086 
-1.0 -1.0 -1.0 -1.0 -1.0 -1.0 -1.0 -1.0 -1.0 -1.0 9:0.202 
-1.0 -1.0 -1.0 -1.0 -1.0 -1.0 -1.0 -1.0 -1.0 -1.0 9:-0.135 
-1.0 -1.0 -1.0 -1.0 -1.0 -1.0 -1.0 -1.0 -1.0 -1.0 9:0.17 
-0.39329865100108846 -1.0 -1.0 -1.0 -1.0 -1.0 -1.0 -1.0 -1.0 -1.0 9:0.345 
-0.0 -1.0 -1.0 -1.0 -1.0 -1.0 -1.0 -1.0 -1.0 -1.0 9:0.354 
-1.0 -1.0 -1.0 -1.0 -1.0 -1.0 -1.0 -1.0 -1.0 -1.0 9:0.226 
-1.0 -1.0 -1.0 -1.0 -1.0 -1.0 -1.0 -1.0 -1.0 -1.0 9:0.092 
-0.0 -0.0 -0.09630561661009625 -1.0 -1.0 -1.0 -1.0 -1.0 -1.0 -1.0 9:0.413 
-0.0 -0.0 -1.0 -1.0 -1.0 -1.0 -1.0 -1.0 -1.0 -1.0 9:0.408 
-0.0 -0.9989123619314982 -1.0 -1.0 -1.0 -1.0 -1.0 -1.0 -1.0 -1.0 9:0.373 
-1.0 -1.0 -1.0 -1.0 -1.0 -1.0 -1.0 -1.0 -1.0 -1.0 9:0.344 
-1.0 -1.0 -1.0 -1.0 -1.0 -1.0 -1.0 -1.0 -1.0 -1.0 9:0.261 
-1.0 -1.0 -1.0 -1.0 -1.0 -1.0 -1.0 -1.0 -1.0 -1.0 9:0.259 
-1.0 -1.0 -1.0 -1.0 -1.0 -1.0 -1.0 -1.0 -1.0 -1.0 9:-0.898 
-1.0 -1.0 -1.0 -1.0 -1.0 -1.0 -1.0 -1.0 -1.0 -1.0 9:-1.012 
-1.0 -1.0 -1.0 -1.0 -1.0 -1.0 -1.0 -1.0 -1.0 -1.0 9:-1.027 
-1.0 -1.0 -1.0 -1.0 -1.0 -1.0 -0.06714441449723717 -1.0 -1.0 -1.0 9:-1.105 
-1.0 -1.0 -1.0 -1.0 -1.0 -1.0 -0.0 -0.25150055325020043 -1.0 -1.0 9:-1.181 
-1.0 -1.0 -1.0 -1.0 -1.0 -1.0 -1.0 -1.0 -1.0 -1.0 9:-1.05 
-1.0 -1.0 -1.0 -1.0 -1.0 -1.0 -1.0 -1.0 -1.0 -1.0 9:-0.239 
-1.0 -1.0 -1.0 -1.0 -1.0 -1.0 -1.0 -1.0 -1.0 -1.0 9:-0.216 
-1.0 -1.0 -1.0 -1.0 -1.0 -1.0 -1.0 -1.0 -1.0 -1.0 9:-0.178 
-1.0 -1.0 -1.0 -1.0 -1.0 -1.0 -1.0 -1.0 -1.0 -1.0 9:-0.037 
-1.0 -1.0 -1.0 -1.0 -1.0 -1.0 -1.0 -1.0 -1.0 -1.0 9:0.073 
-1.0 -1.0 -1.0 -1.0 -1.0 -1.0 -1.0 -1.0 -1.0 -1.0 9:0.084 
-1.0 -1.0 -1.0 -1.0 -1.0 -1.0 -0.0 -0.0 -1.0 -1.0 9:-1.399 
-1.0 -1.0 -1.0 -1.0 -0.5826999098100627 -1.0 -1.0 -0.0 -1.0 -1.0 9:-1.558 
-1.0 -1.0 -1.0 -1.0 -1.0 -1.0 -1.0 -0.0 -1.0 -1.0 9:-1.538 
-1.0 -1.0 -1.0 -1.0 -1.0 -1.0 -1.0 -0.0 -1.0 -0.0 9:-1.437 
-1.0 -1.0 -1.0 -1.0 -1.0 -1.0 -0.0 -0.0 -1.0 -1.0 9:-1.262 
-1.0 -1.0 -1.0 -1.0 -1.0 -1.0 -0.8916525478239128 -0.0 -1.0 -0.0 9:-1.435 
-1.0 -1.0 -1.0 -1.0 -1.0 -1.0 -1.0 -1.0 -1.0 -1.0 9:-0.415 
-1.0 -1.0 -1.0 -1.0 -1.0 -1.0 -1.0 -1.0 -1.0 -1.0 9:-0.48 
-1.0 -1.0 -1.0 -1.0 -1.0 -1.0 -1.0 -1.0 -1.0 -1.0 9:-0.507 
-1.0 -1.0 -1.0 -1.0 -1.0 -1.0 -1.0 -1.0 -1.0 -1.0 9:-0.53 
-1.0 -1.0 -1.0 -1.0 -1.0 -1.0 -1.0 -1.0 -1.0 -1.0 9:-0.339 
-1.0 -1.0 -1.0 -1.0 -1.0 -1.0 -1.0 -1.0 -1.0 -1.0 9:-0.112 
